digraph Tree {
node [shape=box] ;
0 [label="X[23] <= 1.83683884771e+19\ngini = 0.346\nsamples = 3176\nvalue = [2469, 707]"] ;
1 [label="X[13] <= 83.5\ngini = 0.345\nsamples = 3173\nvalue = [2469, 704]"] ;
0 -> 1 [labeldistance=2.5, labelangle=45, headlabel="True"] ;
2 [label="X[11] <= 1.22977934651e+19\ngini = 0.484\nsamples = 34\nvalue = [20, 14]"] ;
1 -> 2 ;
3 [label="X[2] <= 1.5\ngini = 0.426\nsamples = 26\nvalue = [18, 8]"] ;
2 -> 3 ;
4 [label="X[30] <= 7.5\ngini = 0.375\nsamples = 24\nvalue = [18, 6]"] ;
3 -> 4 ;
5 [label="X[30] <= 3.5\ngini = 0.298\nsamples = 22\nvalue = [18, 4]"] ;
4 -> 5 ;
6 [label="X[23] <= 1.7396294304e+18\ngini = 0.426\nsamples = 13\nvalue = [9, 4]"] ;
5 -> 6 ;
7 [label="gini = 0.0\nsamples = 7\nvalue = [7, 0]"] ;
6 -> 7 ;
8 [label="X[30] <= 1.5\ngini = 0.444\nsamples = 6\nvalue = [2, 4]"] ;
6 -> 8 ;
9 [label="gini = 0.0\nsamples = 1\nvalue = [1, 0]"] ;
8 -> 9 ;
10 [label="X[31] <= 0.5\ngini = 0.32\nsamples = 5\nvalue = [1, 4]"] ;
8 -> 10 ;
11 [label="gini = 0.444\nsamples = 3\nvalue = [1, 2]"] ;
10 -> 11 ;
12 [label="gini = 0.0\nsamples = 2\nvalue = [0, 2]"] ;
10 -> 12 ;
13 [label="gini = 0.0\nsamples = 9\nvalue = [9, 0]"] ;
5 -> 13 ;
14 [label="gini = 0.0\nsamples = 2\nvalue = [0, 2]"] ;
4 -> 14 ;
15 [label="gini = 0.0\nsamples = 2\nvalue = [0, 2]"] ;
3 -> 15 ;
16 [label="X[23] <= 1.29660430974e+18\ngini = 0.375\nsamples = 8\nvalue = [2, 6]"] ;
2 -> 16 ;
17 [label="gini = 0.0\nsamples = 5\nvalue = [0, 5]"] ;
16 -> 17 ;
18 [label="X[26] <= 9.19387983646e+18\ngini = 0.444\nsamples = 3\nvalue = [2, 1]"] ;
16 -> 18 ;
19 [label="gini = 0.0\nsamples = 2\nvalue = [2, 0]"] ;
18 -> 19 ;
20 [label="gini = 0.0\nsamples = 1\nvalue = [0, 1]"] ;
18 -> 20 ;
21 [label="X[23] <= 1.59609395983e+19\ngini = 0.343\nsamples = 3139\nvalue = [2449, 690]"] ;
1 -> 21 ;
22 [label="X[39] <= 1.75476734157e+19\ngini = 0.349\nsamples = 2927\nvalue = [2268, 659]"] ;
21 -> 22 ;
23 [label="X[25] <= 90.0\ngini = 0.348\nsamples = 2925\nvalue = [2268, 657]"] ;
22 -> 23 ;
24 [label="X[11] <= 1.83129291106e+19\ngini = 0.364\nsamples = 1725\nvalue = [1312, 413]"] ;
23 -> 24 ;
25 [label="X[23] <= 6.53317714597e+18\ngini = 0.363\nsamples = 1723\nvalue = [1312, 411]"] ;
24 -> 25 ;
26 [label="X[3] <= 401.0\ngini = 0.347\nsamples = 1256\nvalue = [975, 281]"] ;
25 -> 26 ;
27 [label="X[36] <= 1.1385761764e+19\ngini = 0.487\nsamples = 55\nvalue = [32, 23]"] ;
26 -> 27 ;
28 [label="gini = 0.499\nsamples = 38\nvalue = [18, 20]"] ;
27 -> 28 ;
29 [label="gini = 0.291\nsamples = 17\nvalue = [14, 3]"] ;
27 -> 29 ;
30 [label="X[3] <= 1.05221283657e+19\ngini = 0.337\nsamples = 1201\nvalue = [943, 258]"] ;
26 -> 30 ;
31 [label="gini = 0.335\nsamples = 1197\nvalue = [942, 255]"] ;
30 -> 31 ;
32 [label="gini = 0.375\nsamples = 4\nvalue = [1, 3]"] ;
30 -> 32 ;
33 [label="X[3] <= 441.0\ngini = 0.402\nsamples = 467\nvalue = [337, 130]"] ;
25 -> 33 ;
34 [label="X[14] <= 1.03775604537e+18\ngini = 0.368\nsamples = 358\nvalue = [271, 87]"] ;
33 -> 34 ;
35 [label="gini = 0.488\nsamples = 19\nvalue = [11, 8]"] ;
34 -> 35 ;
36 [label="gini = 0.357\nsamples = 339\nvalue = [260, 79]"] ;
34 -> 36 ;
37 [label="X[26] <= 7.28379999035e+17\ngini = 0.478\nsamples = 109\nvalue = [66, 43]"] ;
33 -> 37 ;
38 [label="gini = 0.198\nsamples = 9\nvalue = [1, 8]"] ;
37 -> 38 ;
39 [label="gini = 0.455\nsamples = 100\nvalue = [65, 35]"] ;
37 -> 39 ;
40 [label="gini = 0.0\nsamples = 2\nvalue = [0, 2]"] ;
24 -> 40 ;
41 [label="X[11] <= 9.35653389009e+18\ngini = 0.324\nsamples = 1200\nvalue = [956, 244]"] ;
23 -> 41 ;
42 [label="X[11] <= 7.84854599602e+18\ngini = 0.347\nsamples = 689\nvalue = [535, 154]"] ;
41 -> 42 ;
43 [label="X[11] <= 7.05942650076e+18\ngini = 0.329\nsamples = 597\nvalue = [473, 124]"] ;
42 -> 43 ;
44 [label="X[3] <= 3.51896442471e+18\ngini = 0.342\nsamples = 552\nvalue = [431, 121]"] ;
43 -> 44 ;
45 [label="gini = 0.329\nsamples = 505\nvalue = [400, 105]"] ;
44 -> 45 ;
46 [label="gini = 0.449\nsamples = 47\nvalue = [31, 16]"] ;
44 -> 46 ;
47 [label="X[29] <= 189.0\ngini = 0.124\nsamples = 45\nvalue = [42, 3]"] ;
43 -> 47 ;
48 [label="gini = 0.337\nsamples = 14\nvalue = [11, 3]"] ;
47 -> 48 ;
49 [label="gini = 0.0\nsamples = 31\nvalue = [31, 0]"] ;
47 -> 49 ;
50 [label="X[11] <= 7.97041146679e+18\ngini = 0.44\nsamples = 92\nvalue = [62, 30]"] ;
42 -> 50 ;
51 [label="gini = 0.0\nsamples = 2\nvalue = [0, 2]"] ;
50 -> 51 ;
52 [label="X[28] <= 400.5\ngini = 0.429\nsamples = 90\nvalue = [62, 28]"] ;
50 -> 52 ;
53 [label="gini = 0.469\nsamples = 8\nvalue = [3, 5]"] ;
52 -> 53 ;
54 [label="gini = 0.404\nsamples = 82\nvalue = [59, 23]"] ;
52 -> 54 ;
55 [label="X[11] <= 1.46790035983e+19\ngini = 0.29\nsamples = 511\nvalue = [421, 90]"] ;
41 -> 55 ;
56 [label="X[14] <= 1.71100392005e+19\ngini = 0.254\nsamples = 349\nvalue = [297, 52]"] ;
55 -> 56 ;
57 [label="X[5] <= 0.5\ngini = 0.247\nsamples = 346\nvalue = [296, 50]"] ;
56 -> 57 ;
58 [label="gini = 0.244\nsamples = 345\nvalue = [296, 49]"] ;
57 -> 58 ;
59 [label="gini = 0.0\nsamples = 1\nvalue = [0, 1]"] ;
57 -> 59 ;
60 [label="X[27] <= 1.5\ngini = 0.444\nsamples = 3\nvalue = [1, 2]"] ;
56 -> 60 ;
61 [label="gini = 0.0\nsamples = 1\nvalue = [1, 0]"] ;
60 -> 61 ;
62 [label="gini = 0.0\nsamples = 2\nvalue = [0, 2]"] ;
60 -> 62 ;
63 [label="X[11] <= 1.61089822419e+19\ngini = 0.359\nsamples = 162\nvalue = [124, 38]"] ;
55 -> 63 ;
64 [label="X[23] <= 4.9251606318e+18\ngini = 0.438\nsamples = 71\nvalue = [48, 23]"] ;
63 -> 64 ;
65 [label="gini = 0.459\nsamples = 14\nvalue = [5, 9]"] ;
64 -> 65 ;
66 [label="gini = 0.371\nsamples = 57\nvalue = [43, 14]"] ;
64 -> 66 ;
67 [label="X[30] <= 11.0\ngini = 0.275\nsamples = 91\nvalue = [76, 15]"] ;
63 -> 67 ;
68 [label="gini = 0.252\nsamples = 88\nvalue = [75, 13]"] ;
67 -> 68 ;
69 [label="gini = 0.444\nsamples = 3\nvalue = [1, 2]"] ;
67 -> 69 ;
70 [label="gini = 0.0\nsamples = 2\nvalue = [0, 2]"] ;
22 -> 70 ;
71 [label="X[28] <= 410.0\ngini = 0.25\nsamples = 212\nvalue = [181, 31]"] ;
21 -> 71 ;
72 [label="X[28] <= 400.5\ngini = 0.444\nsamples = 24\nvalue = [16, 8]"] ;
71 -> 72 ;
73 [label="X[36] <= 1.19468172589e+19\ngini = 0.305\nsamples = 16\nvalue = [13, 3]"] ;
72 -> 73 ;
74 [label="X[11] <= 6.35409583886e+18\ngini = 0.5\nsamples = 4\nvalue = [2, 2]"] ;
73 -> 74 ;
75 [label="gini = 0.0\nsamples = 1\nvalue = [1, 0]"] ;
74 -> 75 ;
76 [label="X[30] <= 4.5\ngini = 0.444\nsamples = 3\nvalue = [1, 2]"] ;
74 -> 76 ;
77 [label="X[14] <= 1.4220308238e+19\ngini = 0.5\nsamples = 2\nvalue = [1, 1]"] ;
76 -> 77 ;
78 [label="gini = 0.0\nsamples = 1\nvalue = [1, 0]"] ;
77 -> 78 ;
79 [label="gini = 0.0\nsamples = 1\nvalue = [0, 1]"] ;
77 -> 79 ;
80 [label="gini = 0.0\nsamples = 1\nvalue = [0, 1]"] ;
76 -> 80 ;
81 [label="X[13] <= 97.5\ngini = 0.153\nsamples = 12\nvalue = [11, 1]"] ;
73 -> 81 ;
82 [label="gini = 0.0\nsamples = 10\nvalue = [10, 0]"] ;
81 -> 82 ;
83 [label="X[27] <= 1.5\ngini = 0.5\nsamples = 2\nvalue = [1, 1]"] ;
81 -> 83 ;
84 [label="gini = 0.0\nsamples = 1\nvalue = [0, 1]"] ;
83 -> 84 ;
85 [label="gini = 0.0\nsamples = 1\nvalue = [1, 0]"] ;
83 -> 85 ;
86 [label="X[14] <= 1.94264339479e+18\ngini = 0.469\nsamples = 8\nvalue = [3, 5]"] ;
72 -> 86 ;
87 [label="gini = 0.0\nsamples = 1\nvalue = [1, 0]"] ;
86 -> 87 ;
88 [label="X[30] <= 3.5\ngini = 0.408\nsamples = 7\nvalue = [2, 5]"] ;
86 -> 88 ;
89 [label="X[30] <= 2.5\ngini = 0.5\nsamples = 4\nvalue = [2, 2]"] ;
88 -> 89 ;
90 [label="gini = 0.0\nsamples = 1\nvalue = [0, 1]"] ;
89 -> 90 ;
91 [label="X[27] <= 0.5\ngini = 0.444\nsamples = 3\nvalue = [2, 1]"] ;
89 -> 91 ;
92 [label="gini = 0.0\nsamples = 1\nvalue = [0, 1]"] ;
91 -> 92 ;
93 [label="gini = 0.0\nsamples = 2\nvalue = [2, 0]"] ;
91 -> 93 ;
94 [label="gini = 0.0\nsamples = 3\nvalue = [0, 3]"] ;
88 -> 94 ;
95 [label="X[27] <= 9.5\ngini = 0.215\nsamples = 188\nvalue = [165, 23]"] ;
71 -> 95 ;
96 [label="X[14] <= 1.60149685002e+19\ngini = 0.208\nsamples = 187\nvalue = [165, 22]"] ;
95 -> 96 ;
97 [label="X[30] <= 2.5\ngini = 0.249\nsamples = 137\nvalue = [117, 20]"] ;
96 -> 97 ;
98 [label="X[23] <= 1.7053818972e+19\ngini = 0.296\nsamples = 94\nvalue = [77, 17]"] ;
97 -> 98 ;
99 [label="X[36] <= 1.5145715498e+19\ngini = 0.229\nsamples = 76\nvalue = [66, 10]"] ;
98 -> 99 ;
100 [label="gini = 0.0\nsamples = 20\nvalue = [20, 0]"] ;
99 -> 100 ;
101 [label="gini = 0.293\nsamples = 56\nvalue = [46, 10]"] ;
99 -> 101 ;
102 [label="X[11] <= 1.47693790561e+19\ngini = 0.475\nsamples = 18\nvalue = [11, 7]"] ;
98 -> 102 ;
103 [label="gini = 0.391\nsamples = 15\nvalue = [11, 4]"] ;
102 -> 103 ;
104 [label="gini = 0.0\nsamples = 3\nvalue = [0, 3]"] ;
102 -> 104 ;
105 [label="X[14] <= 1.49973188117e+19\ngini = 0.13\nsamples = 43\nvalue = [40, 3]"] ;
97 -> 105 ;
106 [label="X[17] <= 189.0\ngini = 0.062\nsamples = 31\nvalue = [30, 1]"] ;
105 -> 106 ;
107 [label="gini = 0.0\nsamples = 25\nvalue = [25, 0]"] ;
106 -> 107 ;
108 [label="gini = 0.278\nsamples = 6\nvalue = [5, 1]"] ;
106 -> 108 ;
109 [label="X[28] <= 431.0\ngini = 0.278\nsamples = 12\nvalue = [10, 2]"] ;
105 -> 109 ;
110 [label="gini = 0.0\nsamples = 7\nvalue = [7, 0]"] ;
109 -> 110 ;
111 [label="gini = 0.48\nsamples = 5\nvalue = [3, 2]"] ;
109 -> 111 ;
112 [label="X[27] <= 4.5\ngini = 0.077\nsamples = 50\nvalue = [48, 2]"] ;
96 -> 112 ;
113 [label="X[17] <= 189.0\ngini = 0.041\nsamples = 48\nvalue = [47, 1]"] ;
112 -> 113 ;
114 [label="gini = 0.0\nsamples = 34\nvalue = [34, 0]"] ;
113 -> 114 ;
115 [label="X[27] <= 1.5\ngini = 0.133\nsamples = 14\nvalue = [13, 1]"] ;
113 -> 115 ;
116 [label="gini = 0.0\nsamples = 10\nvalue = [10, 0]"] ;
115 -> 116 ;
117 [label="gini = 0.375\nsamples = 4\nvalue = [3, 1]"] ;
115 -> 117 ;
118 [label="X[11] <= 6.76271724069e+18\ngini = 0.5\nsamples = 2\nvalue = [1, 1]"] ;
112 -> 118 ;
119 [label="gini = 0.0\nsamples = 1\nvalue = [1, 0]"] ;
118 -> 119 ;
120 [label="gini = 0.0\nsamples = 1\nvalue = [0, 1]"] ;
118 -> 120 ;
121 [label="gini = 0.0\nsamples = 1\nvalue = [0, 1]"] ;
95 -> 121 ;
122 [label="gini = 0.0\nsamples = 3\nvalue = [0, 3]"] ;
0 -> 122 [labeldistance=2.5, labelangle=-45, headlabel="False"] ;
}